nep3 4 Pb Se Te S 
cutoff 8 4 87 13
n_max 4 4
basis_size 12 12
l_max 4 2 0
ANN 30 0
  5.8399022e-01
 -1.8759198e-01
 -7.9875916e-02
  2.4489340e-01
  1.3971578e+00
  7.6911569e-01
  3.5561379e-02
 -2.2624135e-01
  4.5733780e-01
 -6.1577660e-01
  4.7784761e-02
  1.1712638e-01
  4.7861966e-01
  5.9510320e-01
  7.9283707e-02
  3.0806416e-01
  2.8505988e-02
  1.1428781e+00
  7.9852796e-01
  4.0779263e-01
 -2.9395283e-03
 -8.6354220e-01
  1.4812993e-02
  2.1911552e+00
 -2.1204848e-02
 -2.0756217e-02
 -2.4334766e-02
 -3.1508284e-04
  3.2155956e-03
 -2.3298338e-02
 -1.4025684e-02
  1.0312953e+00
 -6.2224563e-02
 -1.6612042e+00
 -7.7180189e-01
  4.3975906e-03
  4.0527629e-03
 -3.8662534e-02
 -1.8103760e-02
 -5.4132815e-02
  4.3512989e-02
  4.1509025e-02
  1.3046628e-03
  1.8694729e-01
 -2.6035128e+00
 -4.0871546e-02
  4.3761622e-02
  2.7012277e-02
  4.4512510e-02
  5.7899975e-03
  7.6343812e-02
  1.9844775e-03
  6.2798440e-02
  2.8808643e-03
  2.2646802e-02
 -4.8435055e-02
  6.8953605e-03
 -4.4259649e-02
 -1.0695766e-02
  3.2919087e-02
 -3.3069345e-01
 -1.1638001e+00
  8.0631794e-03
  1.1062554e+00
  1.0037693e+00
 -2.1079421e-01
  3.2152940e-02
  2.3739037e-01
 -9.2232209e-03
 -3.5921342e-03
 -6.6413969e-02
 -1.5028561e-03
 -3.1160556e-02
 -9.0332076e-02
 -1.5366666e-02
 -8.5265767e-03
 -1.2422496e-02
 -3.8120754e-02
  1.2000885e-02
 -1.5422687e-02
  4.2786002e-02
 -4.4789091e-03
 -2.0895476e-02
 -5.0684172e-03
  6.7206477e-03
  9.9635094e-01
  6.4158668e-03
  2.3338546e-03
 -2.0485919e-03
  5.4863378e-02
 -8.6831927e-01
 -9.0957135e-01
  8.4088600e-01
 -9.7228599e-01
 -9.5867407e-01
  2.2024122e-01
 -2.8234202e-01
 -8.5723561e-01
 -2.0478985e+00
 -8.6202031e-01
 -3.2525659e-01
  5.6767897e-03
  3.0933845e-01
 -8.8086128e-03
 -1.4269707e-01
 -6.0036413e-02
  1.6561346e-02
 -1.3664038e+00
  8.8346740e-03
 -9.0090847e-01
 -1.1164082e+00
  4.1483488e+00
  7.9591881e-04
  2.0586250e-02
  8.4506720e-01
 -2.8624339e-02
 -3.9259810e-03
 -3.5665195e-02
  4.0771183e-02
 -6.8222928e-01
 -2.3595922e+00
 -2.0387011e+00
  6.8419802e-01
  8.4404647e-01
 -4.4444621e-01
 -5.2955359e-01
  8.3394937e-02
 -2.4677494e-03
  2.1632288e+00
 -9.8514318e-01
  8.3856724e-02
  3.7370336e-01
 -2.5311068e-01
 -3.8899279e-03
 -1.4243462e+00
 -1.6555947e+00
  1.9369595e-01
  4.3338414e-02
 -1.5159973e+00
 -1.7249209e+00
 -1.3486042e+00
 -2.6092330e-01
 -1.3969351e+00
  1.5052904e-02
  8.3452898e-01
  1.3409396e-01
 -1.4883570e-03
  1.9348772e-02
  1.3197800e-02
 -3.6185030e-02
  3.6496193e+00
  6.0603170e+00
  2.8639328e-02
 -1.4784230e+00
  9.1486919e-01
  6.3145220e-01
  6.5379387e-01
  8.0903000e-01
  3.2244515e-01
  2.0168417e+00
  6.0622317e-01
  4.6871704e-01
 -5.8410633e-01
  2.1512693e-01
  2.4262837e-01
  2.2146818e-03
 -1.4843122e-02
 -1.2574257e+00
 -1.5354234e-01
 -2.6682869e-04
  3.0058184e-01
 -1.6648183e+00
 -6.9404310e-01
 -6.1014599e-01
 -1.2393209e+00
  8.3501950e-02
 -2.1065015e-02
 -3.1700727e-02
 -4.4087786e-03
  1.2640040e-02
 -2.0039291e-03
 -1.6027723e-02
 -6.7608482e-03
 -2.8203928e-03
  2.7388662e-02
 -6.5897568e-03
  1.1007484e-02
 -1.9182881e-02
  2.0759799e-02
  7.7239536e-03
  6.7294305e-03
  2.2565922e-02
 -8.8651851e-03
 -8.3706267e-02
 -2.5909672e-02
 -5.4588052e-04
  1.6862176e-02
  6.7514689e-03
  1.4217641e-02
  2.5505753e-02
  9.8736649e-03
 -9.7760856e-03
  1.5999288e-03
  3.1418484e-03
  2.5544528e-02
 -4.9337293e-03
  1.7279940e+00
 -2.2741282e-02
  7.2095795e-03
  8.4831621e-03
  1.0912200e-02
  1.7690919e-01
  4.5206076e-01
  3.4386289e-01
  4.2746961e-01
 -7.4886069e-02
  1.4974332e+00
  1.4451179e-01
 -3.5807878e-01
  3.3893734e-01
  6.7424767e-02
 -6.8719774e-01
  2.3505613e-01
  2.3393439e-02
 -1.3973688e+00
 -3.1190885e-02
  6.7136657e-01
  5.4645822e-03
 -8.6352837e-01
 -6.5799332e-01
 -1.5405635e+00
 -6.4707398e-01
 -1.8414742e+00
 -1.4906135e+00
  1.9973729e+00
 -3.0329737e-01
 -1.6008565e-01
  6.1493814e-02
  2.6580414e-01
 -5.3727251e-02
  2.8892145e+00
 -6.2163156e-02
 -9.1604912e-01
  1.3737770e+00
 -2.3136711e+00
  5.5273254e-03
  5.2290011e-02
  3.5174652e-03
 -1.4957945e-02
  4.9788326e-02
  1.8216289e-03
 -2.8189695e-02
 -3.9142636e-03
  1.4799644e-01
  7.5285565e-03
 -2.5248202e-02
 -1.3391713e+00
 -3.0614997e-03
  9.0269586e-03
 -9.2106881e-03
  3.5034098e-02
 -1.9468604e+00
 -2.5730764e-03
  7.7885170e-03
 -1.1262666e-02
 -1.2825454e-02
 -3.1451456e-02
 -1.9933067e-02
 -1.4651113e-02
 -2.0940978e-02
 -1.9217012e+00
  1.0020010e+00
 -1.6110517e-01
 -1.4586669e-01
 -4.5697961e-02
  5.0716788e-01
 -7.7271506e-02
 -1.3615607e+00
 -1.2396407e-01
  7.0898402e-01
  3.2083720e-01
  5.3062111e-01
  6.0997790e-01
 -7.8766130e-02
  4.6998486e-01
 -3.6823858e-02
  2.3897460e+00
  1.8110600e+00
 -1.1867100e+00
  4.1726854e-02
  3.8732943e-01
  3.3833239e+00
  1.3521929e+00
  2.0174837e-01
  3.9320144e-01
  1.2159237e-02
 -5.9302781e-02
 -1.1870681e-02
 -5.0586127e-02
 -2.5305897e-02
 -3.0075178e-02
  1.0692152e+00
  5.2737647e-01
  1.2753111e-02
  1.9444804e-01
  3.4952369e-03
  4.9281314e-02
  1.5857738e-02
  2.7067257e-02
  7.3394291e-03
 -4.3884601e-02
  3.8486034e-02
 -5.7543658e-02
  8.7853000e-03
  4.5763864e-03
 -1.5606582e-03
  2.0296643e-02
  2.2368222e-02
  9.1282334e-03
  3.3883320e-03
  7.3501706e-02
 -6.5857470e-03
 -4.8493687e-03
 -2.0753870e-02
 -3.4502754e-03
  2.0666305e-02
  9.7012632e-03
 -2.9513543e-02
  1.5543826e-02
  4.9037479e-02
 -3.6641660e-01
 -8.1104863e-01
 -1.3277786e+00
  2.7618590e-01
  8.4795535e-01
 -1.7729478e+00
  7.4735053e-02
  2.0512764e-01
  1.8276730e+00
  4.3446639e-01
  1.3695218e-03
  2.5624260e-01
  2.3503821e-01
  9.9201739e-01
  5.1788636e-03
  1.3433700e+00
  7.8854673e-02
  5.1656342e-01
  2.1410072e-01
 -1.3315040e-02
 -2.7702543e-01
 -1.3619702e+00
 -1.0689632e-01
 -3.7229782e-01
  1.6359296e+00
  1.7780412e-02
 -7.1032368e-02
 -2.1500796e-02
 -5.3254496e-03
 -3.6659844e-02
  2.7951616e-01
 -4.3557078e-01
 -5.6421912e-01
 -9.8423094e-02
 -3.7475366e-03
  6.9521358e-03
  1.1168523e-03
 -1.3794915e-03
  4.5964308e-03
  4.3817636e-02
  1.8683570e-02
  7.9103671e-03
  8.3967382e-03
  9.2600640e-03
 -1.4686412e-03
 -1.5852621e-02
 -1.3454723e+00
 -5.3374652e-02
 -2.6587741e-03
 -6.0084611e-03
  1.4379100e-02
 -9.0376370e-02
  1.2199325e-02
  1.5793223e-02
  1.8904351e-02
  4.6665771e-03
 -4.2169061e-02
 -5.4433052e-03
  1.0863124e-02
 -2.5820026e-02
 -2.9349047e-01
 -9.8559707e-02
  6.3368952e-01
 -1.4391953e-01
 -2.1019857e+00
  2.2325662e-01
 -1.6426339e+00
  5.4959100e-01
  2.0614898e-01
  6.5277508e-03
 -8.9482301e-01
 -3.6156859e-02
  1.1812519e+00
  6.0741866e-01
 -6.9168862e-04
 -5.5107528e-01
 -2.4642589e-02
  1.6463379e+00
  6.6367173e-01
  2.8493214e-01
  2.5652037e-03
 -8.4313981e-02
  5.8432567e-01
  2.3180589e-02
  7.9490292e-01
  2.5701044e-02
 -3.9815407e-02
 -8.8193165e-03
  2.4368389e-02
  6.8855113e-03
 -4.1982727e+00
 -1.8431941e-01
  1.8551891e+00
 -1.2770494e+00
 -1.3023198e-01
  1.2928326e-01
  1.3882076e-02
  8.2927477e-01
  2.9065210e-02
 -3.4123812e-02
  4.3356352e-02
  1.5462521e+00
  7.9402757e-01
  2.2532120e-02
  9.5928974e-02
  1.4826542e-01
  9.0691644e-01
  6.7239481e-01
  3.8993899e-02
  1.3734205e-01
 -8.7468149e-03
  1.9046068e+00
  1.3146438e-02
  1.6727065e-01
  1.2346234e-02
  1.6796589e-02
  2.9708445e-03
  4.8069872e-02
  2.0567551e-02
 -7.2903256e-03
 -9.2405885e-01
  2.2550502e+00
  1.3916885e+00
  6.7922890e-01
  1.2241409e+00
  3.5080954e-02
 -1.7780536e-01
  3.2989360e-02
 -4.7781407e-03
 -6.2696547e-03
 -5.2408345e-02
 -1.0153208e-01
  1.4942482e-02
 -7.4730297e-03
 -1.5181945e-02
 -3.7338868e-02
  2.4390903e+00
  1.1294379e+00
 -3.5934309e-03
  1.7019164e-02
 -4.7357477e-02
  7.1943879e-01
  1.5828221e-01
  7.5784370e-02
  3.7364587e-02
 -3.2911275e-02
 -1.0727948e-02
  5.3828731e-02
  9.8303426e-03
 -4.8551470e-04
  3.6180485e-02
 -9.2426074e-01
 -6.0094577e-01
  4.8329037e-01
  3.7596908e-01
  1.5082503e-02
 -4.6725041e-01
 -3.1326047e-01
  1.3735454e+00
 -8.7999952e-01
 -1.0116116e+00
 -6.1498169e-02
 -1.2625895e-01
  1.2573807e-01
 -9.7718962e-02
 -4.1380480e-02
  8.6784130e-01
  5.9086418e-01
 -1.5103220e+00
  3.9195484e-03
 -3.5805222e-02
  2.1456897e+00
  1.1918198e+00
 -1.8510878e+00
 -6.1653280e-01
  4.2111310e-03
 -1.2611311e-02
  7.4498001e-03
 -1.4785852e-02
 -4.9203627e-02
 -2.3001754e+00
 -2.3934691e+00
  1.6180405e-01
  1.7264967e+00
 -1.4882331e+00
 -6.4578646e-01
 -2.3138788e-01
  5.0289547e-01
 -1.0091846e-02
 -1.5813030e+00
 -1.5948935e-01
 -7.7884085e-02
  1.5037595e-01
 -7.5808877e-01
 -6.9081891e-01
 -2.4120755e-01
 -9.7811741e-01
 -3.8980603e-01
 -2.0396044e+00
  2.0931967e-02
 -2.3826075e+00
  2.9149503e-01
  8.3310664e-01
 -2.4702737e+00
  3.1707871e-01
 -2.0269370e-01
  1.5538339e-02
 -3.4001134e-02
  1.0580338e-01
 -3.3061400e-02
  8.7169886e-01
 -1.0830251e+00
  1.4397742e-01
  9.0752345e-01
  9.4085775e-02
  2.0844065e-01
 -4.6817535e-03
  3.1796999e-02
  3.3397406e-01
  3.1821538e-02
  1.5637542e-01
 -1.0205734e-03
  2.9413062e-01
  1.5094969e-01
  1.0490779e-02
  2.2351040e-02
  1.7013140e-02
  3.0447781e-01
  1.9270227e+00
  3.0686563e-02
  4.8071653e-02
  3.1253632e-02
  1.6855054e-01
  2.4554983e-03
 -2.7635362e-02
 -3.7529662e-03
 -6.6868097e-02
 -1.6683031e-02
  2.2699703e-03
  6.4262100e-03
  1.2008954e-01
 -1.4064757e+00
 -1.8571742e+00
  8.2256943e-01
  1.6599629e+00
  1.0688467e-02
 -5.5741332e-03
 -1.9221965e-02
  4.0936157e-01
  3.8812440e-03
  4.3667477e-01
 -1.0683029e-02
  1.3072175e-01
  1.6245199e-02
  1.4148544e-01
 -3.6360945e-03
  8.8559872e-01
  2.7614057e-01
  2.8450606e-02
  8.9349523e-03
  1.3351880e-03
 -6.0760155e-02
 -1.2088775e-02
 -3.9511643e-02
 -6.4904387e-03
 -4.9128007e-02
  1.2134796e-02
  5.1135886e-03
  1.7476680e-02
  2.6611988e-03
 -4.4517991e-01
 -8.0397409e-01
  9.4272625e-01
  1.6103359e+00
  2.4148645e+00
 -2.7492067e-01
 -2.4549019e-02
  6.7960755e-03
 -4.3673012e-03
  7.2489440e-02
 -2.0752230e-01
  6.3003823e-03
 -6.2966309e-02
 -5.4539740e-01
 -7.2877243e-02
  4.4630533e-03
 -3.4866534e-02
 -5.9441358e-01
 -7.4106827e-02
  2.4096040e-02
 -4.0364239e-02
  1.1149311e-02
 -1.4589907e-01
 -7.2273542e-03
 -3.3116853e-01
  1.0477111e-02
  1.0645914e+00
  4.0844032e-03
  1.1141809e-02
  4.9211755e-03
  5.1834184e-01
  4.3086720e-01
  1.1769524e+00
  2.4908069e-01
 -4.8955467e-01
  2.0317730e-02
 -7.9551321e-01
  2.6674438e+00
 -4.6732208e-01
  5.4836012e-02
  2.2244317e-02
 -8.1354536e-02
  1.1007257e-02
 -1.1662761e-02
 -2.0466280e-01
 -2.3154832e-02
 -1.4926504e+00
 -1.5020120e+00
 -1.5124932e-01
 -2.7354367e-02
  4.3612299e-03
 -3.6720029e-01
  4.6723243e-02
  3.1537469e-02
  6.6635646e-03
 -1.9440904e-02
 -4.5221765e-03
 -2.7151001e-03
 -3.0535655e-02
 -5.7051545e-03
  1.2394576e+00
  2.9140966e+00
  6.5542603e-01
  1.5682955e+00
 -7.6884240e-01
 -2.7452899e-02
 -3.5275295e-02
 -1.5355133e-02
 -2.9500320e-03
 -3.6159351e-02
  2.7426731e-02
  5.9284037e-01
  4.8416205e-02
  4.6360355e-02
  1.1107067e-02
 -1.5326223e-02
  7.0921980e-02
  1.0892536e-02
 -3.5192009e-02
 -4.7077741e-03
 -6.7216359e-02
 -2.6056115e-03
  1.8158544e-02
 -1.7376520e-02
  6.7303884e-01
  2.5579573e-03
  3.3036647e-03
  1.5657950e-02
 -1.3390299e-02
 -1.7748673e-02
 -3.1385042e-02
  5.8176929e-01
 -8.0774099e-02
  4.5243505e-01
 -9.7623873e-01
 -1.5046352e-01
 -6.8321216e-01
 -7.4115700e-01
  4.2150733e-03
 -3.1216454e-02
  1.1141221e-02
  1.3342856e+00
 -1.4740494e-02
 -1.1671790e-02
 -3.6414727e-03
  7.2478685e-03
  9.9168502e-02
  7.7655404e-03
  1.5700122e-02
 -1.6428625e-03
  2.7245623e-03
 -9.1273022e-01
 -5.2456152e-01
 -3.0131561e-01
  4.3568038e-03
 -1.5384494e-03
 -3.2586418e-04
 -6.3820975e-04
 -4.9733254e-03
  9.4563537e-04
 -5.2182865e-01
 -2.4210021e+00
  6.6196865e-01
  1.0043804e-01
  3.4324929e-01
 -9.1756675e-03
  2.5412929e-03
 -1.3244550e-02
  6.7402907e-02
 -5.4479740e-04
 -6.5214047e-03
 -3.0596172e-02
  7.9010618e-01
 -3.5502685e-03
 -1.4933085e-01
 -1.6359530e-01
  3.4664175e-03
 -2.1503074e-02
 -4.0672347e-01
  5.8337296e-03
 -5.8498651e-01
 -4.1624404e-02
  2.8336765e-03
 -6.0685598e-03
  7.9440167e-03
 -1.9825995e-04
 -1.8063346e-02
  5.3585488e-03
  1.0641246e-02
 -2.6324205e-02
 -4.6686947e-01
 -2.8255436e-01
  6.5831780e-02
 -1.8361275e-01
 -1.0977128e+00
 -3.8840023e-01
  3.8241416e-01
 -4.4627056e-01
  1.6362168e-01
  1.8513124e+00
  1.7209055e-01
  9.2526555e-01
  7.2092307e-01
  2.4718358e-01
  1.4530292e-02
  1.1316776e+00
  3.8107446e-01
 -6.2483639e-02
  4.2596811e-01
 -5.0085151e-01
 -2.3415720e+00
 -1.5595398e+00
  1.8733456e+00
 -1.8975881e-01
  2.2193673e+00
  5.8484166e-03
 -2.8688928e-01
  3.9950227e-03
 -2.2551058e-01
  1.8765897e-02
  9.2458598e-02
  1.3212757e+00
  1.0108749e+00
 -1.3275392e+00
  1.1724843e+00
  1.6059308e-01
  6.3990289e-01
  2.5983381e-01
  3.1726994e-02
 -3.0699509e-01
 -3.2945392e-01
 -7.7088994e-01
  6.5344259e-02
 -3.9330754e-01
 -4.4736543e-01
  8.9852072e-02
  2.0884578e+00
  1.3417301e+00
 -1.5055910e+00
  7.4292691e-03
 -4.5701424e-03
  4.7057939e+00
  1.2990874e-01
 -4.0002324e-02
  1.6368644e-02
 -2.0620013e-02
 -1.9652037e-01
  1.0469592e-03
  4.5607788e-03
 -9.5796417e-03
 -2.1572859e+00
 -7.5583696e-02
  5.8448356e-01
 -1.1999787e+00
  2.6613224e-01
  2.8145394e-01
 -2.6721421e-01
  9.2007883e-02
  7.8441775e-01
  1.0494316e+00
  8.3946157e-03
  3.0274212e-01
  7.9969382e-01
  4.1366440e-01
  3.7998793e-01
  8.8122495e-02
  2.6902058e-03
  6.8492731e-03
  1.6706156e-02
 -1.3116624e-02
  1.6598180e-02
  4.0829301e-01
  4.2697796e-01
  7.3371375e-01
  6.3167624e-02
  4.0573310e-03
 -6.4803258e-02
  6.2979147e-02
  1.8768970e-02
 -4.4301446e-03
 -1.0445359e+00
 -2.2058389e+00
 -1.5266566e-01
 -1.0157627e+00
 -5.3647995e-02
  2.1182109e-02
  5.9895911e-03
  2.4308100e-02
 -3.9146429e-01
 -8.9756330e-04
 -1.9765100e-02
 -5.5867100e-01
  1.3632648e-02
 -2.7740917e-03
 -4.6158474e-02
  1.8745136e-02
  7.0436083e-02
  3.8281921e-02
  2.5117445e-01
  6.8795197e-03
 -2.9118175e-03
  1.0307488e+00
 -2.2750063e-02
  2.9120216e-01
 -1.3453733e-02
  1.1213877e-02
 -5.8954111e-03
  3.0730783e-03
  5.7961494e-03
 -1.5623213e+00
  2.3964705e-01
  3.7561795e-01
 -6.6887963e-01
 -1.3694572e+00
  1.2300085e+00
  1.4713712e-01
  1.2135458e+00
 -5.2840514e-03
  5.3053994e-02
  9.1766268e-03
  1.5280199e-01
 -3.8175315e-02
  1.6466504e-02
  2.3159383e-01
  2.4132393e-02
  4.8227622e-03
 -1.7722198e+00
  1.4588789e-02
  4.5458324e-02
  6.5663559e-03
 -4.5675546e-02
  1.1633284e-02
 -1.6692460e-02
  1.3885187e-02
 -3.5577811e-02
 -5.9090829e-03
  3.7772052e-02
  1.0584599e-02
  1.7567996e-02
  1.3737814e-02
 -7.0329106e-01
  7.3423576e-01
 -6.2217814e-01
 -2.2453337e+00
  5.5893505e-01
  1.4874235e+00
 -2.9060751e-02
  8.6196434e-01
 -7.4004036e-01
  6.0460490e-01
  4.8594490e-01
 -9.4504899e-01
  6.7763114e-01
  1.0255038e+00
  9.9471849e-01
  7.2082841e-01
  3.8758883e+00
 -2.0352955e+00
  1.7749079e-02
 -1.7912303e-01
  2.4998222e-01
 -9.3657064e-01
  6.4165491e-01
 -3.3826201e+00
 -4.5531213e-01
 -4.7835389e-01
 -2.0797703e+00
  1.4585905e+00
  1.3851290e+00
 -7.5695175e-01
  2.2759847e-01
  6.8624839e-02
 -4.8412941e-02
 -2.4175605e-01
  3.5602665e-01
 -2.0710722e-01
  2.3293875e-03
 -3.5816914e-01
  6.7155711e-02
  1.7886387e-01
 -3.2050986e-02
  1.6390914e-01
  3.6978845e-02
  2.3430371e-01
 -4.8665244e-02
  8.4420584e-02
 -1.5301789e+00
 -7.5390828e-01
  5.2278019e-02
  6.8561047e-02
 -7.9345226e-02
  6.6006593e-02
  4.2094514e-01
 -5.0325650e-01
  6.8871073e-02
  2.5664702e-01
 -1.4209542e-01
  1.1866613e-01
  1.9344756e-01
  3.9295740e-02
  3.0119519e+00
 -1.0359671e+00
 -3.5093260e-01
  8.6771977e-01
  3.6468044e-01
 -8.2683635e-01
 -6.2075448e-01
 -2.8515248e+00
 -2.6284473e+00
 -1.4019562e+00
 -4.1863987e-01
  5.6474692e-01
 -6.9679770e+00
  6.0496217e-01
 -2.6208045e+00
 -3.1850421e+00
 -6.5059996e-01
 -2.2697820e-01
 -3.3296986e+00
 -1.8932724e+00
  6.0764772e-01
  2.3421891e+00
 -7.9645880e-02
  7.0755035e-01
  2.2389300e+00
  1.1970562e+00
 -2.7151757e-01
 -9.5896882e-01
  9.0525486e-02
  3.6426631e-01
 -1.9175419e-01
  2.3171825e+00
  7.6647890e-01
 -8.5850306e-02
 -5.0189042e-01
 -1.5538521e+00
 -1.4578146e+00
 -2.8206203e+00
 -1.5414160e+00
 -3.0186266e-01
  4.1360512e-01
  1.3554121e+00
  7.3924994e-01
 -1.0662152e+00
 -6.2802005e-01
  2.0119576e+00
  1.6805366e+00
 -3.9987543e-01
  9.4363737e-01
 -1.7802920e+00
 -2.0486632e-01
 -6.0097933e-01
 -4.2162108e+00
  1.3790540e+00
  9.0673029e-02
  1.0647935e+00
 -6.3185805e-01
  6.7429489e-01
  1.1650954e-01
 -1.3259232e-01
 -1.7075268e+00
 -1.3855491e+00
  2.3437595e+00
  1.4832277e+00
 -2.0511067e+00
 -1.8057522e+00
 -4.2751333e-01
 -1.4558976e+00
 -2.0190737e+00
  1.9337662e+00
  1.1855974e+00
  3.2837179e-02
  9.2460416e-02
  3.6166313e-01
 -1.2230729e+00
  6.6011822e-01
  3.1170005e-01
  1.6484064e+00
  2.6287162e+00
  6.2334383e-01
  7.3544316e-02
  4.6358833e+00
  1.2136033e+00
 -3.1921977e-01
  1.1099416e+00
  1.3215281e+00
 -1.7299132e+00
 -1.1236039e+00
  2.4669667e-01
  9.9558020e-01
 -7.8632462e-01
 -1.3045450e-01
 -6.9010305e-01
 -1.0890009e+00
 -6.7677927e-01
 -2.7151043e+00
 -2.2879324e+00
 -2.4062451e-02
  2.6505635e+00
  2.2255824e+00
  3.7383807e+00
 -4.4101586e+00
  1.2530963e-01
  1.0642461e-03
 -2.3498352e+00
  6.8611391e-02
  8.5573852e-02
 -1.4794984e+00
  1.6871233e+00
 -2.3900056e+00
  1.5750989e+00
  1.6133185e-01
 -8.1904703e-01
  6.1170650e-01
 -2.3983841e+00
 -1.0248660e+00
 -7.5788444e-01
  1.3532305e+00
  1.0273846e+00
 -1.0579823e+00
 -1.5398887e-01
  2.0936837e+00
 -2.6668806e+00
 -2.1810012e+00
  7.9847008e-02
 -5.1196837e-01
 -8.6669892e-01
  3.3185741e-01
  4.9329278e-01
  2.7310066e+00
 -2.2455230e+00
  2.0725979e-02
 -2.5957781e-01
 -1.4371181e+00
 -4.1840667e-01
  1.2929512e+00
  1.0155411e+00
 -1.8512689e+00
 -2.7353234e+00
 -1.0713664e-01
  2.6239100e-01
 -2.5259778e-01
 -3.2956696e+00
  4.2295992e-01
 -4.1160503e-01
  1.2643682e+00
 -1.0373066e-01
  9.6471196e-01
  6.1559057e-01
  6.6029978e-01
 -7.1229738e-01
 -1.0502130e-01
  3.0197587e+00
 -2.0981946e+00
  1.3265141e+00
  3.0425164e-01
  3.8776858e+00
 -7.9322702e-01
 -1.0001528e-01
  7.4165583e-01
  1.9948078e+00
  3.4157819e-01
  3.0999857e-01
 -1.3215009e+00
  4.5351571e-01
  3.0105705e+00
  3.5570380e-01
 -1.3704163e+00
 -1.1229684e-01
  1.3992498e+00
 -1.9925232e+00
 -1.1478444e+00
  4.4519070e-01
  1.9887424e-01
 -2.6811039e+00
 -2.4773183e+00
 -2.5767901e+00
 -1.7308043e+00
 -1.2486724e+00
 -2.9062841e+00
 -1.3104722e+00
  1.0448205e+00
  4.1937667e-01
 -1.0170971e+00
 -5.0257945e-01
  2.4549282e+00
 -8.3222613e-02
 -2.1137357e+00
  7.2209048e-01
  2.8865206e+00
 -1.1946574e+00
 -2.0713203e+00
 -1.0392514e+00
  1.1886339e+00
 -1.1445467e-01
 -4.1863346e-01
  3.7337863e-01
 -5.8977801e-01
 -5.7526201e-01
  1.2301280e+00
 -1.0373226e+00
  4.5336317e-02
 -1.8758711e+00
 -1.0540549e+00
 -4.1971419e-02
  1.4775056e+00
 -1.4171978e+00
 -5.9947217e-01
  8.4337115e-01
 -2.1832447e+00
 -2.6329529e+00
  2.0108657e+00
  1.7720239e-01
  5.0087547e-01
 -6.8416876e-01
 -2.2618034e+00
  2.7245706e-01
  6.9272494e-01
  8.5035652e-01
  1.4170213e+00
 -1.5374119e+00
  1.1142874e+00
 -1.4182283e-01
 -2.6031260e+00
 -1.0909486e+00
 -1.3512054e-01
 -1.0605514e+00
 -4.0818963e-02
 -4.3254036e-01
  3.1830852e+00
 -2.3921485e+00
  9.1238666e-01
  1.8260211e-01
  9.3695974e-01
 -9.2470336e-01
  1.3566971e+00
  2.4200822e-03
  3.4350531e+00
 -4.5537800e-01
  1.9959632e-02
 -1.5127404e+00
 -1.0926554e-01
 -5.5666035e-01
 -1.6022378e+00
 -4.5729514e-02
  1.3946228e+00
 -6.4450580e-01
  2.2538536e+00
 -8.5124061e-02
 -2.1699514e+00
  5.6258321e-02
  1.3204093e+00
  1.0070467e+00
 -9.4452667e-01
  1.6107653e+00
 -1.0218843e+00
 -2.3781033e+00
 -1.2945993e+00
  2.0076807e+00
 -4.3172029e-01
 -2.0608641e-01
 -3.5294476e-01
  4.4502696e-01
  6.8385899e-01
 -3.9004984e-01
  2.4267883e+00
  6.8323493e-01
 -1.2649269e+00
 -1.7716821e-01
  7.0778012e-01
  3.6082511e+00
 -1.1204096e+00
 -2.4195516e+00
  1.6330551e+00
  3.9660702e+00
  1.7172172e+00
  1.7963562e+00
  1.8524472e+00
  7.5934225e-01
  4.2875991e+00
  1.2253349e+00
  2.0271721e+00
  1.6856722e+00
  1.3758899e+00
  5.6022274e-01
  5.3063893e+00
  1.4912256e+00
  1.5576574e+00
  1.4032559e+00
 -1.7499319e+00
 -1.1780560e-03
 -5.1898694e-01
 -3.1304393e+00
 -1.4855472e+00
 -1.3528259e-01
  1.5940915e+00
 -1.0111698e+00
 -1.2813790e+00
  8.1191218e-01
 -2.8280184e+00
 -6.9239104e-01
 -4.8173651e-01
 -4.6472523e-01
  7.0872432e-01
  5.4719222e-01
 -5.6208582e+00
 -1.0605670e+00
 -1.6491053e+00
 -3.2839777e+00
  1.0531038e+00
 -5.4602283e-01
  1.7207832e+00
 -2.5939791e+00
 -1.3092575e+00
 -6.6930431e-01
  8.0130851e-01
 -1.7954692e-01
  4.9690640e-01
 -5.0341606e+00
 -6.9954473e-01
 -1.0928711e+00
  3.5578617e-01
  7.0652920e-01
  1.5815884e-01
  1.8852336e+00
 -2.0520048e-02
 -1.3438697e+00
 -2.8405323e+00
 -9.0633601e-01
  6.7179257e-01
 -6.4800614e-01
 -4.5764346e+00
 -1.1925275e+00
  1.9146433e+00
 -1.3556780e+00
  2.4963349e-02
  1.8253176e+00
 -3.5510964e+00
 -1.0685613e+00
  3.9804569e-01
  2.6966686e+00
  8.4536326e-01
  7.8371114e-01
 -1.4776919e+00
  1.8386972e+00
  5.4852933e-01
 -4.0511231e+00
 -1.2428070e+00
  6.4857846e-01
  2.9832928e+00
 -8.8711339e-01
  2.3028100e+00
  1.3616970e+00
  4.7957573e-02
 -1.9506508e-01
 -5.8143605e-02
  1.1553350e-01
 -2.4852800e+00
  1.0103242e+00
 -1.4682238e-01
 -1.1965195e-01
  1.5718250e+00
 -2.4794490e+00
 -1.6863739e-01
  1.0143106e+00
  7.0621574e-01
 -1.3274056e+00
 -9.3888268e-02
 -5.1696658e-01
 -2.5066502e+00
  5.4512686e-01
 -2.6979952e+00
  4.3106289e-03
 -7.1402311e-01
 -1.6649883e+00
 -4.2947191e-01
 -1.3613635e+00
  7.2893739e-01
 -1.0743870e+00
  5.7456976e-01
 -3.7273526e-01
 -1.2905094e-01
 -3.4444497e+00
 -1.7984328e+00
 -1.2067558e+00
 -3.0101287e-01
  5.8716595e-01
  2.6814016e-02
  8.7219161e-01
  2.7889106e+00
 -7.3963892e-01
 -1.4368521e+00
  3.6649287e-02
  1.8601209e+00
  9.3240452e-01
 -5.5147260e-01
 -5.9979665e-01
  1.0636058e+00
 -3.7994599e-01
 -3.1690711e-01
  3.1642586e-02
 -1.0425091e+00
  6.4428788e-01
 -4.9202085e-01
  4.4680426e-01
  3.7200205e+00
 -1.0554233e+00
 -3.6013982e+00
  3.5543960e-02
  1.8916540e+00
 -8.7991935e-01
 -6.8986970e-01
 -2.3143778e+00
  1.5255666e+00
 -1.3088628e+00
 -8.9725748e-02
 -9.6690053e-01
  2.6017293e-01
 -1.7815613e+00
  4.4597927e-01
 -4.9854213e-01
 -1.1300234e+00
 -1.2001406e-01
  1.4681695e+00
 -6.7073625e-01
  4.2946637e-01
 -1.4796150e+00
 -1.1272396e+00
  1.0127876e-02
 -2.7819374e-01
  2.5599730e+00
  1.0053420e+00
  5.2418524e-01
  2.6498575e-02
  1.5119569e-02
 -8.2607448e-02
  5.5693060e-01
  8.6071259e-01
  1.2281719e+00
 -2.5356501e-02
  4.1065744e-01
 -4.4490030e-01
 -1.5498219e-02
  1.5555830e-02
  1.7815646e-02
 -1.1252383e-01
  3.3794373e-01
 -1.6271060e+00
 -7.3970892e-03
  2.8493295e+00
 -4.7963850e-02
 -2.1660425e-01
  7.0716703e-01
  1.9809821e+00
  6.2181032e-01
 -6.6748643e-01
  8.9915967e-01
  2.5591753e+00
 -5.5008844e-02
 -1.9480312e+00
  1.3095658e+00
  1.1980380e+00
  5.7018347e-02
  1.3817382e-01
 -1.9578781e-02
 -2.8102071e+00
 -7.0083922e-01
  9.8974138e-01
 -3.1710672e-01
 -1.2878911e+00
 -3.9646760e-01
  1.3591814e+00
  3.4110389e+00
 -1.1376444e+00
  6.3063067e-01
  2.2128892e+00
  7.4271046e-02
 -7.7730048e-01
 -2.9065683e-01
  2.2939017e+00
  3.0144423e-01
  6.4923152e-02
  2.8296497e+00
 -5.5256331e-01
  3.4154922e-01
  8.7922704e-01
 -2.7535543e+00
 -1.0692734e+00
 -6.7817867e-01
  1.8435446e+00
 -1.9035485e-01
 -3.1074569e+00
 -3.3023562e-02
 -8.7540239e-01
 -9.9306023e-01
 -1.0949241e+00
 -2.3337424e+00
 -1.6612487e+00
  2.5728800e+00
  5.7047039e-02
  8.3168149e-02
 -3.1994619e+00
  4.3446751e+00
  1.2346843e+00
 -4.2936881e-05
  4.9928796e-01
  7.8765666e-01
 -1.6559933e+00
  8.5608885e-02
 -1.5483671e+00
  2.1576416e+00
  1.9846251e+00
  1.8863728e+00
 -1.1024640e+00
 -5.7667065e-02
 -1.5624739e-01
  1.1249119e+00
  5.9700675e+00
  1.9097044e+00
 -1.1361866e+00
 -6.3609767e-01
  4.9020132e-01
  1.5483823e+00
 -8.9245421e-01
  5.6117135e-01
  2.6761136e+00
  3.0082881e+00
 -4.1176730e-01
  1.4508215e+00
 -1.7265645e-01
  6.6038442e-01
  3.4660010e+00
  1.7689691e+00
  5.9055054e-01
 -1.0870248e+00
 -2.6404469e+00
 -9.5596063e-01
  3.7746054e-01
 -6.9194949e-01
 -9.0511732e-02
 -1.6564123e-02
  1.8167065e-01
 -1.8153583e+00
 -1.1829666e+00
 -4.9491403e-01
 -4.0370116e-01
 -6.5665454e-01
 -9.6981692e-01
  1.9058576e-01
 -3.1668704e+00
  1.0797954e-01
 -1.9944791e+00
 -8.1277126e-01
 -1.4297642e-01
 -5.1342434e-01
  3.1733916e+00
  8.0138958e-01
 -3.9545248e+00
  2.5757425e+00
  2.8829640e-01
  6.3227282e+00
  1.7265132e-01
 -1.5649761e+00
 -1.3176548e+00
  2.9658987e-03
  9.2013359e-01
  1.3578231e+00
  1.1397402e-01
 -1.9243229e-02
 -1.6529269e+00
 -3.0227094e-03
  8.9982711e-02
 -1.6450573e+00
  2.4792743e+00
  2.1368952e+00
  5.4692256e-01
  2.2891259e+00
 -1.2730857e-02
  2.2703290e+00
 -3.0788556e-01
  8.2623684e-01
 -5.9148359e-01
 -2.8415670e+00
 -2.0795783e-01
 -1.5163769e+00
  1.3852464e+00
  4.8429458e-03
 -1.8235087e+00
  5.6452025e-04
  6.9930279e-01
  8.5481483e-01
 -3.1937057e-01
  2.3333371e+00
  7.9787552e-01
  1.9418563e+00
  1.2597452e+00
  2.6562157e+00
  1.2236409e+00
 -1.7441964e+00
  1.1902939e+00
 -7.1713018e-01
  1.9885353e+00
  7.8420496e-01
 -1.5091290e+00
 -9.8356567e-02
 -1.9864185e-01
 -2.1741551e-01
  1.9663117e+00
 -1.5436665e+00
  3.0640771e+00
  2.3866072e+00
 -3.8886008e-01
  1.0695475e+00
 -5.5527538e-01
  8.5973603e-01
  5.3634816e-01
  3.0606592e+00
  1.7330805e+00
  1.5923471e+00
 -1.3094747e-01
  2.1070716e+00
 -2.0062306e+00
  1.8289286e+00
  3.1654918e+00
  3.4458883e+00
  4.9373397e-01
  5.1815331e-01
  1.4933624e+00
 -6.3518238e-01
 -2.3515697e+00
  3.1865728e+00
  3.2765524e+00
 -2.5196394e-01
  9.2867279e-01
  4.0248575e+00
  2.5610323e+00
  7.0668966e-01
  1.3825858e+00
  2.4998415e+00
  1.5628260e+00
  1.8263919e+00
 -7.4927821e-03
 -1.4144114e-01
 -3.1385824e-01
 -9.3816794e-02
 -1.7222668e+00
 -5.4100782e-01
  1.5584651e+00
  3.3173606e-01
 -3.9479821e+00
  3.8194069e-01
 -6.8355370e-01
  1.9908214e+00
 -7.0526666e-04
  5.5463195e-02
 -8.9893555e-03
 -5.5610489e-02
  4.6175337e+00
  7.8698790e-01
 -9.5680851e-01
 -4.6442434e-01
  3.7263861e+00
  4.7830495e-01
 -5.6045246e-01
 -3.0351165e-01
  1.1471344e-01
  7.4491836e-02
 -2.9747978e-01
  9.3967241e-01
  2.7355285e+00
  4.6499592e-01
  1.2722677e-01
  2.5306928e-01
  2.8969572e+00
 -5.8135802e-01
 -1.2266134e+00
  9.8113187e-02
 -1.4370294e+00
  4.4956937e-01
 -3.7468255e-01
  1.8593043e+00
 -2.1028774e+00
 -1.9197390e+00
  1.7691292e+00
 -3.8918898e-01
 -1.4287393e+00
  5.6506389e-01
  5.6867931e-02
 -3.7118621e-02
  2.8952679e-01
 -1.6954265e+00
 -3.5302744e+00
  9.5637947e-01
 -1.4962611e+00
 -4.3508039e+00
 -1.0497594e+00
 -5.7773799e-01
 -3.4529009e+00
 -6.6690087e-01
 -5.8747321e-01
 -1.5135761e+00
 -3.3036041e-01
 -5.1137593e-02
 -3.7043769e-02
 -5.1789504e-01
  5.1264739e+00
 -7.8450489e-01
  6.0192412e-01
 -1.2231603e+00
  1.5336771e+00
  1.9433125e+00
  1.2446400e+00
  3.6294482e+00
  4.9579716e+00
  2.2072194e+00
  1.4090354e+00
  3.3694327e-01
  4.0754085e+00
  1.2245286e+00
  1.0757039e+00
  4.1331019e+00
 -1.4368649e-01
 -1.2167408e+00
 -7.4917868e-02
 -1.2010064e+00
 -2.1416225e+00
  6.7581058e-01
  1.4551381e+00
 -9.9420917e-01
 -2.2711217e-02
 -2.1152921e+00
 -1.4411557e+00
  3.3076265e+00
  2.9787743e+00
  1.3094640e+00
  4.1540536e-01
  1.0768148e+00
  3.5851088e-01
 -3.2728040e-01
 -7.2520983e-01
  9.8083085e-01
 -7.4151464e-02
 -3.3353140e+00
 -1.1468613e+00
 -6.4204383e-01
 -9.7540426e-01
 -2.2789090e+00
  4.1982198e-01
 -2.7589086e-01
  7.0305103e-01
  6.1836892e-01
  1.3553824e+00
 -1.8697369e+00
  3.2765391e-01
 -9.5195949e-02
 -2.0635321e+00
 -3.8084605e-01
 -6.4006805e-01
  2.3071423e+00
  3.3469410e+00
  4.9720678e+00
  2.1955866e-02
  1.2056986e-01
  8.6747193e-01
  6.1137390e-01
 -1.4520782e+00
  1.6168376e+00
  1.4145377e+00
  2.8641109e+00
  3.1472104e+00
  8.3204485e-02
 -1.0581694e+00
 -1.1574885e+00
 -2.9440305e+00
  2.4008963e+00
 -5.4070002e-01
  1.6361563e-01
  3.8088851e+00
  4.7678369e-01
  2.2088910e-02
  7.8330077e-02
  5.2659523e-01
 -2.1158185e+00
 -7.6700479e-02
 -6.8373287e-01
  2.8763932e-01
  8.2714927e-01
 -1.6016331e+00
  1.4902253e-01
  1.0900247e+00
  3.3626499e+00
  1.5411620e+00
  1.2996038e+00
 -9.1560942e-01
 -1.3616097e-01
 -9.2695749e-01
 -2.4063538e-01
  3.6830440e-02
  7.3272866e-01
  4.8239839e-01
  1.2054756e+00
 -1.3254081e+00
 -3.2056260e+00
  3.7835622e-01
 -5.2441978e-01
  1.9403234e+00
 -1.3888026e+00
 -5.8471620e-01
  9.9888366e-01
 -1.7994488e+00
  2.4006126e+00
  8.1226617e-01
  6.4301574e-01
  5.5687481e-01
  1.4514390e+00
 -4.1037831e-01
 -3.0899084e+00
  2.6947480e-01
 -1.1242392e+00
 -1.9246602e+00
 -1.4390476e+00
  3.0655077e+00
  6.9714092e-02
 -4.9320465e-01
  1.1666744e+00
  1.3665313e-01
  3.0319350e+00
  2.2964792e+00
  5.8128333e-01
  6.8568647e-01
  1.0087450e+00
  7.1064329e-01
  7.6723945e-01
  8.7793446e-01
  2.2230084e+00
  3.6472684e-01
 -1.3543894e+00
  3.5713312e-01
 -1.0641476e+00
 -9.9279262e-02
 -1.1064706e+00
  3.6706075e-02
  8.5953850e-01
  2.7560225e+00
 -6.4859885e-01
  1.1586835e+00
 -1.3949199e+00
 -1.9921772e+00
 -4.3625808e-01
 -1.6513193e-01
  2.4862430e+00
  2.8328078e+00
 -3.8073990e-01
 -3.2324931e-01
  1.1246978e+00
 -2.0149216e-02
 -5.7525788e-03
 -3.9278194e-02
 -2.5441421e-02
 -1.5238160e-03
 -4.7671059e-03
  3.6621344e-01
  6.0853828e-04
 -1.8848181e-02
  4.2900580e-01
  4.1535492e+00
  2.4061003e+00
 -2.5654566e+00
  1.9300878e-01
 -3.0230718e+00
  2.2936726e+00
  3.9015807e-02
  5.1251733e-01
 -1.3217949e+00
 -2.3603533e-01
  7.6093897e-02
  1.7260861e-01
 -4.7398907e-01
 -5.7721436e-03
  3.4276995e-01
 -1.6568222e+00
 -6.4097323e-02
  2.7411282e-01
 -6.7695701e-01
  3.1978273e+00
 -2.8967673e-01
 -3.1504759e-01
  3.1769598e-01
  3.4426465e-03
 -7.0112491e-01
 -9.5445138e-01
  1.3749443e+00
  2.2916942e+00
 -4.9924663e-01
  4.5407951e-01
  2.4732722e-01
  5.8118290e-01
 -2.3535707e+00
  6.0851943e-01
  1.3707572e+00
  3.8902354e+00
  1.2857709e+00
  1.1754469e+00
 -2.0883536e-02
  3.1017706e-01
 -4.5159069e-01
 -4.5302693e-02
 -1.9140288e+00
 -9.6148914e-03
  3.8814905e-01
  1.1501590e-01
  5.9143718e-02
 -2.3236778e+00
  8.7246871e-01
  1.7681037e+00
 -6.2371916e-01
  6.3023901e-01
 -1.0397632e+00
  9.1769242e-01
 -5.6576753e-01
 -1.4545063e+00
 -9.9404138e-01
  1.2930158e-01
 -4.7281733e-01
 -1.6880363e-02
 -1.7100997e+00
 -1.0132190e+00
 -1.7758722e+00
  9.5345855e-01
 -7.2593510e-02
 -1.2933034e+00
  1.7477711e+00
 -3.3392847e+00
  3.4393094e-02
 -5.2050447e-01
  1.9938067e+00
  3.1607919e+00
 -9.7615860e-02
  7.5218928e-01
  2.3753197e-01
 -1.3530570e-01
 -6.4802301e-01
 -7.8805381e-01
 -2.1572402e-01
 -7.4231672e-01
 -3.2251608e+00
 -2.4566744e-01
  1.2782339e+00
  1.1316570e+00
  2.1437240e+00
 -1.7448385e+00
 -1.1847158e-01
 -8.1991136e-02
 -6.5892267e-01
 -3.2293742e+00
 -1.5338920e-03
 -4.0509009e-01
  2.9258757e+00
 -1.5302777e-01
 -4.7506820e-02
 -2.1870635e-01
 -3.2177323e-01
  8.0513608e-01
 -1.2075503e-01
  2.2794406e+00
  3.6362392e-01
 -7.9456401e-01
 -2.0418715e-02
 -1.6234989e+00
 -9.0566224e-01
  7.6062810e-01
  8.6322449e-02
  8.7874122e-03
  1.2909691e+00
 -9.6982762e-02
 -8.7384683e-01
 -1.0686071e+00
 -1.6301062e+00
  9.2437796e-02
  5.3353775e-01
 -1.5551977e+00
 -1.6536473e+00
  7.9843801e-01
 -1.3322389e+00
  9.0072617e-02
  8.0620861e-01
  3.2896656e-01
 -7.9657322e-01
 -1.8397897e-01
 -2.9490432e-01
  5.0576460e-02
  1.9075641e-01
  1.7806377e+00
 -2.0459602e+00
 -1.3048362e+00
  1.5203565e+00
 -1.1384151e+00
 -5.8089036e-01
 -1.7024003e+00
 -1.0354730e+00
 -1.1967645e+00
  5.4704261e-01
 -8.5811388e-01
 -3.2990692e+00
 -5.7553861e-02
  8.2844174e-01
 -1.0603569e-01
 -1.3476478e-01
 -1.6784819e+00
  8.1955963e-01
 -6.4802819e-01
  1.5954043e-01
  1.8846005e-01
  1.0387285e+00
 -3.1386703e-01
 -3.9651749e-01
  7.3174340e-01
 -8.7335980e-01
  5.1136422e-01
  3.5422948e-01
  1.3748175e+00
  6.1768526e-01
  2.4866221e-02
  6.0243681e-02
 -5.5048937e-01
  3.8363484e-01
 -1.5226203e+00
 -1.9267126e+00
  1.5945337e+00
 -3.0654684e-01
  1.0450870e+00
 -9.0934014e-01
 -5.6231254e-01
 -2.2907247e-01
  3.1040161e+00
 -1.4754224e+00
  1.8473196e+00
  7.1211634e-03
  7.4552453e-01
 -1.0739623e+00
 -8.7479067e-01
  2.1090098e-02
  3.9824289e-01
 -2.2473324e-02
  8.7996519e-01
  1.3695971e+00
  1.3576764e-01
 -9.8613799e-03
 -7.5645454e-02
  5.2064639e-01
 -2.7670171e-02
 -6.7455888e-02
  1.5084547e-02
  7.2768295e-01
  3.6742655e-05
 -1.0657275e+00
 -3.9452938e-03
  2.6797829e-03
  3.5123188e-02
 -2.7823593e-02
  4.6240471e-02
  3.6212006e-01
 -1.1211149e-03
  5.9479149e-03
 -5.6609709e-02
  6.9866228e-01
  5.2395561e-03
 -1.2744421e-02
 -1.4176196e-02
  3.1523290e-01
  1.9386934e-02
  2.3868717e-02
 -3.7545594e-03
 -3.1065282e-03
  8.3283857e-03
 -3.1880984e-01
  2.4683299e-02
 -1.6468635e+00
 -2.2863355e-03
 -5.7966456e-02
 -6.9706693e-02
  2.5968157e-02
  7.8918291e-03
 -1.5304048e-01
  8.5737566e-03
  2.5094867e-01
 -3.9937265e-02
 -2.6023060e-02
 -4.0114425e-02
  2.1279732e-02
 -1.0436372e+00
  3.2619745e-01
 -2.6421884e-02
 -6.4144427e-01
  1.0836461e-02
  1.1362156e-02
  2.8964616e-02
  1.8483263e+00
  6.7436025e-02
  1.1879151e-03
  5.1210746e-02
 -2.5849259e-01
 -2.8265944e-02
 -2.1435514e-03
 -9.2230970e-03
  2.4280064e-02
  3.6119825e-01
 -4.3590945e-01
 -1.4733222e-01
  1.5295137e+00
  3.7409015e-02
  3.3152602e-03
 -3.5077042e-03
  4.1764259e-02
  4.7458382e-03
  2.9521971e-04
 -2.4347171e-02
 -1.7680370e+00
 -5.2628163e-03
  2.1340251e-03
 -3.4302346e-02
  7.3203202e-03
  9.6966535e-01
 -6.5487969e-01
  1.2661371e-01
  7.9513806e-01
  2.6381053e-03
 -2.9513700e-02
 -2.5837636e-02
 -7.4523842e-01
  7.5904809e-02
 -2.5083650e-02
  1.2230093e-02
  2.9459203e-02
  5.4906058e-04
 -6.0460925e-02
 -6.7584179e-03
 -5.7001743e-03
 -1.4301901e-02
 -2.3552954e-01
 -1.4922909e-02
  4.7021122e-03
 -2.9010285e-02
 -1.9931536e-02
 -2.4130635e-02
  2.7069360e-01
 -1.4487088e-03
 -1.6895017e-01
 -1.8410241e-04
  1.2846549e+00
  2.2023628e-02
  3.8291367e-03
  1.0448039e-02
 -6.4712362e-03
  2.7297181e-01
  3.2957268e+00
  2.5439359e-02
 -9.7459471e-01
  1.3872231e-02
  9.8300288e-03
  4.0343288e-02
  3.5181571e-02
 -2.8291656e-02
 -8.4761083e-03
  2.6042398e-02
  1.4607661e+00
 -8.1868796e-03
 -5.0230619e-02
 -1.2443323e-02
  1.1129732e-02
 -4.6212923e-02
 -3.4899630e-03
 -7.0937976e-02
  2.7175961e+00
 -2.7396455e-03
 -1.6340509e-03
 -2.6665468e-02
  8.3142430e-01
  1.7786462e-02
 -4.0929336e-02
 -5.0905939e-02
 -5.6603867e-01
  4.1306385e-01
 -1.6477812e-02
 -1.3930804e-01
  4.5520496e-03
 -1.2735333e+00
 -1.4459491e-03
 -3.1193795e-02
  7.7839327e-01
  2.4755682e-01
  1.8820066e-02
  1.2626813e-05
 -5.1442355e-01
 -8.7717026e-03
 -3.1038919e-01
  1.9447239e-02
 -1.6936508e+00
 -2.7031897e-02
 -1.7489890e-02
 -2.9661747e-02
  6.9165580e-02
 -5.3429747e-01
  7.8335620e-02
 -1.0465573e+00
  2.3676622e-01
  5.6279015e-02
 -4.2706631e-02
 -4.1706618e-03
  1.9253571e+00
 -4.4387532e-03
  2.0434609e-02
  1.5928105e-02
  4.2232546e-01
 -1.6468629e-02
  2.8649312e-02
 -7.1799778e-03
  4.0079881e-02
  2.7445140e-01
 -2.6633302e-02
 -8.9749473e-01
  1.2995021e-01
  7.1813934e-02
 -1.1617751e-01
  3.5729505e-02
  1.3381127e+00
 -1.8444667e-02
  1.4258885e-02
  1.3033261e-03
  2.9334579e+00
 -3.3327408e-02
 -4.1438743e-02
  9.9716233e-03
  3.9689109e-02
  7.0382828e-01
  1.5865447e-02
  5.9989914e-02
  7.7275735e-01
  8.3390493e-03
 -2.2026319e-03
 -1.5354676e-02
  1.0702010e+00
 -2.6406213e-03
 -5.3576441e-03
  2.5942212e-02
  1.0016893e+00
  1.9016566e-02
  1.9456098e-02
 -1.6451089e-02
  1.1997133e-02
  9.1121387e-01
  1.8271220e+00
  2.2675866e-01
  4.7222868e-01
 -3.4125513e-01
 -6.6619754e-01
 -2.0377900e-01
  1.1447531e+00
 -7.6328456e-02
 -2.5454810e-01
 -7.9029137e-03
 -1.3906404e+00
 -1.8183732e-02
 -1.1962377e-02
 -1.6312855e-01
 -5.4509841e-02
 -3.4289621e-03
  4.5509851e-03
 -2.7761884e+00
  2.2154905e-02
 -1.5211071e+00
  1.2634661e-02
  3.8691482e-03
 -1.9280028e-02
  3.8408956e-03
  1.3899298e-02
  2.2720655e-03
  3.0299312e-02
  1.4571302e-01
  3.4080490e-02
  2.2631448e-02
  3.2331604e-03
 -9.9414688e-01
 -1.3793061e+00
 -2.0212694e-01
 -4.7804072e-01
 -1.3178089e-01
 -5.2541834e-01
 -2.6223153e-01
  3.1453913e-01
 -4.8993837e-02
 -3.0673306e-02
  3.4018196e-02
  7.2069091e-01
  2.0124530e-03
  3.9019072e-03
 -1.7331298e-02
  7.9567805e-03
  7.5560337e-01
  8.0333972e-01
 -7.0659977e-01
 -2.0110513e-01
 -9.0900809e-03
 -1.6171023e-02
  9.0416726e-03
 -6.8325281e-01
 -1.5417767e-02
  7.9564653e-02
 -5.6660175e-03
 -1.0463090e+00
  1.9651847e-02
 -7.9149613e-04
  7.2116377e-03
  2.2903224e-04
 -1.2767275e-01
  5.0937123e+00
  1.8459433e-01
  2.2290175e+00
 -1.0992131e-01
 -8.2967108e-01
 -1.6331054e-01
  8.0049229e-01
 -4.5290709e-02
 -3.0373130e-04
 -1.1976136e-02
  1.7691236e+00
  1.3285873e-02
 -5.5905562e-03
  1.5511826e-02
  1.1832331e+00
 -2.8843603e-01
  4.7118235e-01
  1.3491187e+00
  1.1731125e+00
 -1.7780546e-02
 -5.2903920e-02
 -1.0879888e-01
 -4.2048189e-01
 -6.8325042e-03
  2.9830080e-02
  9.8300185e-03
  3.7834308e+00
 -6.7915571e-01
  1.6856026e-02
  2.7807422e-02
  4.5301211e-03
  1.4813432e+00
  3.1606200e-01
 -4.5469975e-01
  4.2068604e-03
 -1.2769422e-01
 -3.9230350e-02
 -1.3035998e-02
  1.3984898e-01
 -4.0219785e-03
 -1.9434908e-02
 -2.0727176e-02
 -1.3538948e-01
  5.6527765e-03
  2.3554903e-02
 -3.8611203e-02
 -1.6137096e-01
  2.6233788e+00
  7.7869314e-01
 -9.7085536e-01
  9.5604235e-01
 -5.4985221e-02
 -7.1825340e-02
 -3.9068665e-02
  5.1531810e-01
 -7.8888228e-03
 -1.6291795e-02
  2.8910658e-03
  9.7777069e-01
  2.5301032e-02
 -1.2846196e-02
 -3.1187674e-01
  7.8007750e-02
  1.4468857e+00
  1.9650588e+00
  1.8453135e+00
  3.6426190e-02
 -4.8685321e-03
 -3.9947510e-02
 -1.1131693e-02
  6.2933480e-03
 -4.3287305e-03
  1.0086300e-03
  2.1389022e-02
  3.6280229e+00
 -3.0968338e-02
  1.6107880e-02
  2.3685619e-02
 -7.1864891e-01
 -4.6123931e-01
  8.1229079e-01
  1.6275464e+00
  6.5781444e-01
 -8.4137596e-04
 -8.1871627e-03
 -3.2188350e-01
  5.8462036e-01
  1.7560340e-03
  3.3103354e-02
 -1.6183497e-02
  5.9330356e-01
  1.0702382e-03
 -1.1187149e-02
 -6.4810634e-02
  5.1572914e-03
  3.7214151e-01
  6.1056793e-01
  1.7799082e+00
  8.5231876e-01
 -1.6856118e-03
 -4.2902071e-02
 -7.1097207e-03
 -4.9092782e-01
 -2.2477020e-02
  4.3314531e-02
  3.5339486e-02
 -2.9218571e+00
  1.0564912e-03
 -1.2910271e-02
  8.0447886e-03
 -2.7417073e-02
  1.9986017e+00
  8.3595240e-01
  2.0425715e+00
 -1.0217224e-03
 -4.2360760e-02
 -1.9761249e-01
 -5.0355740e-02
 -2.2952154e-04
  3.5082323e-03
  9.9724215e-03
 -2.8576940e-02
 -2.0370495e+00
  1.9128678e-02
  1.7890509e-03
 -1.8964121e-01
 -4.0821219e-04
  1.4559639e+00
  1.0351554e+00
  1.2552491e+00
 -4.0513945e-01
 -1.3996357e-02
 -1.0761850e-01
 -6.5166406e-02
  6.8374550e-01
  1.4610269e-02
 -4.0463880e-02
  6.8615922e-03
  7.4451983e-02
 -1.1872897e-02
 -1.4265521e-03
  1.5472477e-02
  8.8605937e-04
  7.3950881e-01
 -8.7385589e-01
 -4.8222241e+00
 -4.7821411e-01
  8.2173914e-01
  1.9262170e+00
  6.7185354e-01
 -2.6088440e-01
 -1.0682856e+00
 -1.7735929e+00
 -8.2737958e-01
  1.5133699e+00
 -2.7550682e-02
 -7.5529419e-02
 -9.6138006e-01
 -9.1640158e-03
 -1.8532647e-02
  2.8522052e-03
 -9.7217277e-02
 -7.1601160e-02
  2.2819113e-02
  1.0878297e-02
  3.9650686e-03
 -6.8683196e-03
  4.1883484e-02
  5.8284495e-03
 -5.8447113e-06
  9.8021381e-02
  2.9172408e-03
 -1.2781594e-02
 -5.0169346e-03
  3.1378299e-02
 -8.9433268e-02
  2.1919347e-01
  5.7086456e-01
  1.2858915e+00
  8.7377328e-01
  1.4411458e+00
  6.1621392e-01
  2.0060077e+00
 -9.6724707e-01
 -1.5103618e+00
 -1.1997249e+00
 -5.2286416e-01
  2.1074863e-02
 -7.1650706e-02
 -6.8686491e-01
 -1.4674113e-02
 -5.5608869e-01
  6.8628782e-01
  6.0976577e-01
  6.4806134e-01
 -2.9222011e-03
  6.4380452e-02
  3.4276575e-02
 -7.0574367e-01
  2.3336412e-02
 -1.1661601e-02
  1.4332177e-02
  1.6616411e+00
 -3.6647361e-02
 -4.9228396e-02
 -2.6629472e-03
 -1.1818756e-02
 -1.1128975e+00
 -1.1344850e+00
  3.5475342e+00
  3.1395963e-01
  5.5197891e-02
  6.0656375e-01
  5.7057366e-02
  1.8102957e-01
 -2.5471100e-01
 -1.4379770e+00
 -2.0128001e-01
  7.8498054e-01
 -3.2024626e-02
  1.9650415e-02
 -1.2560992e-01
 -8.7690698e-03
  1.7431202e+00
  4.9107984e-01
  1.5670754e-01
 -1.0724204e+00
  9.0269931e-02
  6.7792006e-02
 -1.1964533e-02
  2.2045758e+00
 -3.2492062e-01
  2.9728445e-03
 -5.4733872e-02
  1.7503207e+00
 -2.2329323e-02
  1.5533006e-02
 -2.3325230e-01
 -2.8768010e-03
  1.6479853e-01
  1.2224980e-02
 -5.9241778e-01
 -1.0819137e+00
 -2.2269692e-04
  2.7750099e-01
  1.4486769e-03
  1.8059947e+00
 -3.6393911e-02
 -1.1530347e+00
 -4.6327475e-02
 -1.0881349e-01
  2.8365955e-02
  4.2196447e-03
 -2.8727381e-02
  1.5070157e-02
 -3.4926064e+00
 -2.3123145e+00
  5.7235056e-01
 -7.7191341e-01
  3.6944658e-01
  5.6273460e-01
  3.8415700e-02
  9.0996814e-01
 -6.2120432e-01
 -8.9676604e-03
 -3.6163386e-02
 -1.6450986e-01
  3.2600246e-02
 -3.8684901e-02
 -6.9282478e-01
 -6.6579105e-03
 -3.1465936e+00
 -5.2729470e-01
  2.0165567e+00
 -2.4142845e+00
 -1.2037421e-02
  1.4349073e-01
  1.1705998e-01
  8.8620329e-01
  1.0743320e-02
 -9.5117915e-01
 -2.6483700e-02
 -7.0762241e-01
  3.1992238e-02
 -1.4461884e-03
 -1.0092340e-02
 -2.6818896e-02
 -2.3442671e-01
  4.9926290e-01
  4.3608752e-01
 -1.1949363e+00
  5.6221360e-01
  4.6620491e-01
  2.7709147e-01
 -9.2740554e-01
 -5.1564324e-01
 -9.8757325e-03
 -3.1441832e-01
 -1.0444438e+00
 -3.3043444e-01
  1.3097320e-02
 -5.8350164e-01
 -1.0852609e-04
 -9.2615569e-01
 -2.2037475e+00
 -4.4240409e-01
  8.6919516e-01
 -1.8561764e-02
  5.6686051e-02
  1.4405815e-02
  2.5487542e-01
 -1.1322252e-01
 -3.5400262e-01
 -2.3564860e-02
 -1.8177124e+00
  2.9442124e-02
 -6.6471142e-03
  1.1736840e-02
  1.6979093e-02
 -2.1883635e-01
 -4.8851910e-01
 -5.5248421e-01
 -5.9166932e-01
  1.8647067e-01
  5.2002895e-01
  4.9562052e-01
  1.0535932e+00
 -4.3882391e-01
 -8.3690979e-02
 -2.9108071e-01
  7.6791847e-01
 -1.3301294e-02
 -1.1596850e-02
 -3.5484549e-01
  8.3034504e-03
  5.6422877e-01
  6.5824074e-01
  6.7873172e-02
 -4.2128929e-01
  2.6770921e-02
  2.0325144e-01
  7.0985028e-04
 -3.9523398e-03
 -6.4649895e-02
 -3.4117967e-01
 -9.1022924e-03
  1.0186447e+00
  1.7639564e-02
  2.8004201e-02
  6.0266596e-03
  2.3839858e+00
 -1.0016981e+00
 -1.0464166e+00
 -1.3148173e+00
 -4.3362167e-01
  1.2604550e+00
  1.1267290e-02
  2.3186815e-01
  4.3477732e-01
  1.9224236e-02
  8.8498197e-02
  1.0824179e-01
  1.3463837e-01
  1.5802449e+00
  6.5189248e-01
  1.3845726e+00
 -2.0323616e-02
  1.0684305e-02
 -3.1748608e-02
 -1.3644995e-02
  1.1027070e+00
  1.2332707e-02
  1.8039618e-02
  1.3105711e-02
  1.6188613e+00
  1.0543461e-02
  1.9541966e-02
  2.6048725e-02
  6.7973846e-01
  7.3242639e-03
  4.3257079e-03
  8.7892646e-03
  2.4520860e+00
  4.4593480e-01
  4.9098637e-02
  1.3399031e+00
 -1.3763343e+00
  1.4978015e+00
  1.1836458e-02
  8.5881978e-02
  3.8298643e-01
  5.5260487e-02
  1.5703098e-01
  9.1209887e-03
  9.2176443e-01
  9.9682349e-01
  1.2569114e+00
  5.3032786e-01
 -1.8864844e-02
  7.0063937e-01
 -1.9786455e-01
 -2.1680417e+00
  3.4088435e+00
 -3.6715724e-02
  1.7644783e-02
 -2.0981820e-02
  7.5049561e-01
 -8.3677266e-03
  2.8262071e-02
 -1.9703802e-02
  2.0401587e+00
  3.8481530e-02
 -2.9394757e-02
  5.5800509e-02
  1.1377544e+00
 -4.8942395e-02
 -5.5107519e-02
 -1.3966782e-01
  1.0692451e+00
  5.4946584e-01
 -1.5262824e-02
  1.7200691e-01
 -7.8406298e-01
  1.4895018e-02
  5.8265530e-02
  1.9314732e-02
 -7.5342482e-01
  7.6890308e-01
  4.8017052e-01
  5.3137636e-01
  1.2137563e+00
 -9.2289937e-01
  7.0365655e-01
 -1.5841751e+00
  3.4115130e-01
  2.4514514e-01
 -3.5605798e-03
  3.2997038e-02
 -3.8879064e-01
  2.0859735e-02
 -1.0770098e+00
 -2.9920585e-02
 -2.6929605e-01
  1.4612341e-01
  7.9683244e-02
  9.9845253e-02
  5.7734239e-01
 -3.3141235e-01
 -5.0998919e-02
  2.5348806e-01
  5.8204550e-01
 -2.1866716e-02
 -8.8046957e-04
  9.0252548e-02
  3.2903547e+00
 -3.7627108e-04
  1.8452998e-02
  4.3389171e-02
 -2.1309564e+00
  2.3541247e-02
  3.4372532e-01
  1.0089018e-01
  1.1950665e+00
 -6.7078745e-01
 -1.3264312e+00
  1.6486697e-01
  8.2183135e-01
  3.6254439e-01
 -5.0223641e-02
  1.9414697e-02
 -3.1046072e-01
  4.3621302e-02
  4.6574850e-02
 -1.4366408e-02
 -1.5577971e+00
  7.8527206e-01
  4.9776968e-01
  1.9970176e-01
  5.3927147e-01
 -8.7018824e-01
 -6.6732776e-01
  4.4523287e-01
  4.2009524e-01
  4.0369985e-01
  5.3905208e-02
  2.1817403e-02
  2.5798330e-01
  1.3172901e-01
  8.6395726e-02
  3.5464637e-02
 -2.0929199e-01
  3.1976134e-02
  2.0673428e-02
  3.4759903e-01
  2.2758988e-01
  6.7453212e-01
 -1.3152622e-02
 -2.8461277e-01
  6.6328388e-01
  8.3875731e-02
 -5.1784575e-02
  2.9097853e-02
  4.0865982e-01
  5.7277076e-02
  1.7746650e-02
 -1.8206291e-02
  2.9467152e-02
  7.2297132e-01
  4.7032037e-01
  3.2062399e-01
  7.5756365e-01
  2.5501069e-01
 -1.4942778e+00
  8.1042916e-01
  5.6956120e-02
  7.2312486e-01
  2.4823295e-02
  5.6726422e-02
  8.7513304e-01
  3.1258544e-01
  1.2948331e-02
  1.6905449e-02
  2.2369000e-01
  3.4109730e-02
 -6.2602442e-03
  4.4778740e-01
  7.9063439e-01
 -1.4461788e+00
 -6.3009816e-01
 -6.0331535e-01
  7.1250427e-01
  2.6931643e-02
 -2.5897698e-02
  2.7576830e-02
  1.7727937e+00
  6.4865790e-02
  5.4085791e-02
 -9.6430499e-03
  1.2748857e+00
  4.0126973e-01
  8.9570701e-01
  7.5827098e-01
  5.9311002e-01
 -2.6128951e-01
  5.6786275e-01
 -1.3119543e-01
  3.4973958e-01
  5.4248953e-01
 -1.9414246e-02
  6.3871369e-02
  2.2469831e+00
  7.6368060e-03
  4.1750863e-02
  4.1440725e-02
  8.5996395e-01
  1.0204661e-01
  9.8502059e-03
  7.9045749e-01
 -1.0910444e+00
 -2.4513800e-03
 -2.2334430e+00
 -3.6027524e-01
  1.0573103e+00
 -1.1947425e-01
  1.1460626e-02
  1.1186263e-01
  3.8803110e-01
 -6.6524721e-03
 -1.3427472e+00
 -1.1046990e-02
  7.1879691e-01
  1.3585701e-03
 -2.8079093e-02
  4.7234464e-03
 -4.7176355e-03
 -2.2372929e-02
 -4.0928554e-02
 -7.2894129e-03
  9.3240976e-01
  4.1428748e-01
  1.3281057e-02
  3.6748691e-04
  1.2309418e-02
  4.7769196e-02
 -1.6222950e-02
 -4.7918841e-02
 -1.2346705e+00
  7.4289986e-03
 -3.4211475e-02
 -1.6059563e-01
 -8.1570435e-01
 -2.1801651e-02
 -2.0528160e-01
 -1.3609775e+00
  8.3027250e-01
 -5.8136538e-02
  7.1553923e-02
 -2.1222230e-02
 -1.0316688e+00
 -1.7750483e-02
 -1.0543833e+00
  1.0863013e-02
  1.9671121e+00
 -1.3454887e-01
 -5.3527905e-03
  1.0660071e-02
 -9.6918680e-03
  2.1531458e-01
 -2.2436094e+00
  1.0110878e-01
  6.2002391e-01
  3.0169060e-02
  7.7844970e-04
 -3.0463051e-02
  1.1495606e+00
 -3.7455051e-03
  6.9735171e-03
  2.1404352e-02
 -2.3314512e+00
  1.9171383e-02
  1.3412242e-03
  7.1446687e-02
 -6.9591336e-02
  7.6561039e-03
  5.9906453e-01
  1.7881352e+00
  7.9171163e-01
 -1.1179080e-01
  1.5565497e-02
  1.3219531e-01
  2.7858810e+00
  1.9446842e-02
 -8.4663260e-01
  2.5122838e-02
  1.0595164e-01
 -5.3961121e-02
  9.0588583e-03
 -3.4433189e-03
 -1.3348459e-01
  1.5070088e+00
  2.0084226e+00
  6.6645280e-02
  1.0297753e+00
  2.6072925e-02
 -2.5801806e-02
  1.9514423e-02
  4.3815318e-01
  1.0818069e-02
 -1.0243177e-01
 -8.2050357e-03
 -8.5431039e-01
  1.4853681e-02
 -4.7206011e-02
  1.2575908e-01
 -7.6952010e-02
 -5.5963621e-02
  1.0217132e-01
  1.0754409e-01
 -1.5265540e+00
 -3.8976766e-02
  1.2792866e-02
  8.9846373e-02
  9.3460065e-01
  2.7118975e-02
 -5.3864050e-01
 -3.2534752e-02
 -1.6631961e+00
  2.8778372e-02
  1.7609619e-02
  1.0876143e-02
 -2.2509974e-01
 -1.1219510e+00
 -1.2143467e-01
 -1.5430848e-01
 -1.4248818e+00
  9.4798971e-03
 -2.4265638e-02
 -3.8851853e-03
 -4.1593578e-01
  1.6417956e-02
 -5.4691762e-01
  6.1646691e-03
 -1.2944456e+00
  1.3877054e-02
 -2.0756652e-03
  2.0510435e-01
 -7.2642565e-02
 -1.2529591e+00
 -1.1566788e-01
  1.4867231e-01
  4.0471980e-01
 -1.1507472e-01
  2.8956251e-02
  9.6086869e-03
 -8.5496958e-03
 -3.3749535e-03
 -4.7456770e-04
  6.7552715e-03
 -2.9764268e-01
 -7.5411168e-03
 -1.7328603e-03
 -5.5016186e-02
 -2.3272674e-01
 -2.3265316e-03
  4.3953817e-02
  4.2256835e-01
  2.7567619e-01
 -2.4618967e-03
  2.1823958e-02
  1.1621706e-02
  2.6273892e+00
 -1.5006929e-02
 -7.0615077e-01
 -2.3418454e-02
  6.6676706e-01
  1.0659562e-01
 -3.3976291e-03
  4.2381930e-01
 -1.3939919e-02
 -8.3569825e-01
 -1.4897882e+00
 -1.9943944e-01
 -2.1998641e-01
 -3.7834567e-03
  1.2585847e-02
 -1.8713616e-02
  2.9231582e+00
 -1.7603617e-02
 -6.2146850e-02
 -1.2210196e-02
  3.5401532e-01
  1.6911578e-03
 -6.0447389e-03
 -4.1653454e-02
 -2.1547064e-02
 -7.8671587e-01
 -9.6934998e-01
  2.3961593e-01
  1.3381325e-01
 -2.3782667e-02
  8.2628485e-03
  2.2590300e-04
  9.7121638e-01
 -7.4300736e-01
 -8.3239168e-01
  3.8121410e-03
 -6.9935071e-01
 -1.8127648e-02
 -4.0787327e-01
  2.9038772e-02
 -8.3637066e-02
 -3.4358132e-01
  5.0522238e-01
  5.5806834e-01
  3.7364349e-01
  2.8653106e-01
 -5.5880705e-03
 -4.3454766e-03
 -6.8627197e-01
 -2.0901533e-02
 -8.5815288e-02
 -7.7973078e-03
 -1.3691666e+00
 -3.7521273e-02
  5.5081297e-02
 -7.5586960e-03
  2.5747415e-02
  2.5747415e-02
  2.5747415e-02
  2.5747415e-02
  2.5747415e-02
  5.8957446e-01
  5.8957446e-01
  5.8957446e-01
  5.8957446e-01
  5.8957446e-01
  4.1208670e-01
  4.1208670e-01
  4.1208670e-01
  4.1208670e-01
  4.1208670e-01
  1.0750763e-01
  1.0750763e-01
  1.0750763e-01
  1.0750763e-01
  1.0750763e-01
  3.4952328e-02
  3.4952328e-02
  3.4952328e-02
  3.4952328e-02
  3.4952328e-02
  6.5759552e-01
  6.5759552e-01
  6.5759552e-01
  6.5759552e-01
  6.5759552e-01
